svm_type c_svc
kernel_type linear
nr_class 2
total_sv 7
rho -1.0525883191703775
label 1 0
nr_sv 6 1
SV
1.0209961886825427e-05 1:-560.00868 2:528.73902 3:-244.36853 4:188.42274 5:-152.92017 6:-330.37885 7:-12.968883 8:30.994436 9:185.65395 10:-187.37082 
1.7136684547831496e-05 1:17.461261 2:-466.21329 3:-352.48686 4:-86.562099 5:-199.46318 6:-96.973219 7:-22.303858 8:-30.952831 9:122.92623 10:48.903881 
2.0432818605367739e-06 1:-177.7238 2:-259.09878 3:-73.959834 4:-305.96079 5:251.45313 6:-72.995473 7:-29.964974 8:172.35073 9:237.54462 10:-94.33295 
1.5225582362286691e-05 1:-290.38669 2:-64.724559 3:-256.55045 4:-226.73986 5:-94.91505 6:157.64108 7:70.012182 8:-49.002597 9:-306.09596 10:112.727 
1.2019718657448917e-05 1:912.37214 2:4.7887743 3:395.16759 4:105.69414 5:-80.219574 6:317.98958 7:269.7288 8:-152.34735 9:58.159991 10:156.61234 
6.3169699303084011e-06 1:398.80951 2:-182.70151 3:498.17402 4:320.99712 5:228.05612 6:-145.36642 7:-340.41817 8:133.86985 9:35.820643 10:-88.386913 
-6.2952199245237703e-05 1:-7.2813082 2:-107.30167 3:38.524052 4:-46.458567 5:-189.60456 6:5.7014694 7:17.17898 8:-28.536909 9:50.26338 10:58.430082 
