svm_type c_svc
kernel_type linear
nr_class 2
total_sv 4
rho -0.44402684130653541
label 1 0
nr_sv 3 1
SV
3.4600755285894755e-07 1:365.18019 2:498.07754 3:-81.609238 4:272.62601 5:-177.17308 6:293.77727 7:-93.410066 8:135.68288 9:-12.183446 10:471.23385 
1.5678673114713589e-07 1:411.4823 2:-637.52253 3:-223.11633 4:223.63095 5:240.51558 6:327.63133 7:-232.43874 8:-199.49997 9:-164.51213 10:-117.46746 
2.7478395380579586e-07 1:369.90476 2:-83.869567 3:566.0413 4:-265.89787 5:389.60333 6:-145.42307 7:-347.7836 8:197.7809 9:280.28855 10:-178.9731 
-7.775782378118793e-07 1:-1186.0233 2:34.540746 3:-8.6686004 4:-45.933442 5:-10.96586 6:-19.075045 7:-13.033226 8:16.287105 9:12.887828 10:10.673613 
