svm_type c_svc
kernel_type linear
nr_class 2
total_sv 6
rho 1.660783806697034
label 0 1
nr_sv 1 5
SV
5.3107051537536715e-06 1:1223.7024 2:-48.02773 3:-142.85258 4:71.240264 5:-96.716758 6:-10.071153 7:14.620345 8:0.65451767 9:-166.45419 10:-4.4595343 
-2.6788677272643577e-07 1:221.15971 2:-380.11274 3:260.99449 4:125.2279 5:-654.14634 6:256.88424 7:-424.41249 8:-377.52835 9:80.284018 10:-393.52855 
-8.1814368387455698e-07 1:1752.4199 2:-287.4644 3:1020.2713 4:530.06013 5:-226.80867 6:-307.27217 7:306.73458 8:-129.41624 9:183.57099 10:774.2846 
-1.7537964709006753e-06 1:506.66569 2:-385.71946 3:-679.14625 4:-427.47057 5:368.77635 6:122.07733 7:253.43259 8:-149.60288 9:339.50351 10:12.137072 
-7.026050523541528e-07 1:-491.81715 2:785.42001 3:-186.55437 4:535.40079 5:-295.72094 6:294.17807 7:249.77224 8:-51.18471 9:-221.1458 10:114.59676 
-1.7682731738978514e-06 1:1570.7194 2:-179.90097 3:692.23259 4:-175.42952 5:107.58859 6:-67.952328 7:-469.54929 8:447.29746 9:81.691562 10:266.69866 
