svm_type c_svc
kernel_type linear
nr_class 2
total_sv 7
rho -0.32327500937284503
label 1 0
nr_sv 5 2
SV
3.034001159478282e-06 1:128.07113 2:-427.2064 3:15.664562 4:-393.72623 5:174.7609 6:4.614196 7:-17.302063 8:27.050632 9:-86.18753 10:28.453071 
4.6011681403545977e-07 1:249.07236 2:-120.38118 3:400.18684 4:329.47682 5:-34.563158 6:229.29014 7:135.71305 8:184.06712 9:-223.91235 10:91.258517 
2.811244281333237e-06 1:153.56501 2:407.69652 3:52.189156 4:47.047201 5:-104.89671 6:153.83475 7:242.06854 8:-176.35496 9:237.21326 10:77.585163 
1.2742271505406482e-06 1:73.72586 2:261.24191 3:-388.85861 4:-85.601275 5:66.181273 6:220.12168 7:-297.12754 8:204.86087 9:-107.38675 10:-153.71206 
6.7280171381800937e-07 1:139.70725 2:382.72654 3:-240.49 4:-17.423904 5:109.43872 6:-176.69045 7:-270.60698 8:374.65578 9:194.10746 10:-13.432291 
-4.8845921106802049e-06 1:-258.13267 2:276.82221 3:219.51178 4:-143.50417 5:-17.50886 6:-58.643303 7:-37.445104 8:-24.155439 9:-42.722358 10:12.079526 
-3.3677990085254319e-06 1:-400.38636 2:-201.78303 3:-97.191272 4:-13.702731 5:113.58711 6:59.065132 7:-39.131863 8:-40.351937 9:-12.091343 10:-27.618484 
