svm_type c_svc
kernel_type linear
nr_class 2
total_sv 10
rho 0.41946389195144623
label 0 1
nr_sv 2 8
SV
3.1489076371625466e-06 1:63.850717 2:141.35184 3:-252.18664 4:141.02836 5:105.13978 6:-76.646769 7:118.72938 8:-102.88711 9:131.14918 10:-53.877604 
1.1949759873165648e-05 1:172.83613 2:7.717375 3:-257.1872 4:-42.933548 5:-78.426364 6:16.638132 7:-46.258761 8:66.833709 9:-148.99604 10:-17.69083 
-3.0906633076286808e-07 1:-611.33341 2:342.0057 3:245.04572 4:-151.9324 5:-203.56125 6:-408.21306 7:-75.932838 8:-103.42772 9:-217.77871 10:-17.023324 
-1.0996559709448646e-06 1:362.24123 2:232.52849 3:326.65184 4:166.32099 5:179.18492 6:-140.48221 7:4.5269724 8:312.76289 9:71.725184 10:202.18328 
-2.7076228813598565e-06 1:119.07815 2:-461.48648 3:-46.898241 4:-444.60555 5:260.51943 6:18.72783 7:82.415444 8:89.044912 9:-48.388809 10:146.59098 
-6.660145389829943e-07 1:514.46115 2:-76.568373 3:304.05134 4:149.21204 5:27.623044 6:93.84607 7:72.760868 8:-344.70949 9:-104.36333 10:197.36096 
-1.8081206518174678e-06 1:-589.5268 2:-437.8958 3:-50.219135 4:112.00821 5:-20.025329 6:-119.03596 7:-113.27476 8:-9.8041777 9:-38.943603 10:-6.7662286 
-2.3642993409195611e-06 1:292.24851 2:286.22829 3:-312.56272 4:-401.24625 5:-746.56408 6:-71.924808 7:47.203834 8:-19.92352 9:499.89679 10:241.54654 
-2.6862107268819582e-06 1:-272.26845 2:473.31276 3:-21.719226 4:27.490485 5:200.87066 6:378.6188 7:-504.36904 8:-18.568481 9:129.3865 10:13.342462 
-3.4576770686586263e-06 1:480.0997 2:-257.34704 3:172.08417 4:67.856624 5:-280.4573 6:127.32108 7:4.2397712 8:74.03064 9:-24.385541 10:-284.93024 
