svm_type c_svc
kernel_type linear
nr_class 2
total_sv 7
rho -0.54693873409244931
label 1 0
nr_sv 4 3
SV
2.599282832213009e-07 1:-13.289335 2:-5.8469313 3:201.38952 4:-833.98915 5:-249.18951 6:-603.34622 7:45.375579 8:265.47349 9:-188.63199 10:-9.805599 
2.3118788822401603e-07 1:19.901785 2:-108.01562 3:163.45305 4:180.99374 5:-1060.8371 6:-177.88015 7:172.23566 8:177.12223 9:338.84267 10:41.6872 
2.4594098008042339e-07 1:63.042586 2:-557.02754 3:173.34695 4:-600.10614 5:-186.48897 6:127.82993 7:2.5689599 8:-357.38664 9:-6.5650743 10:435.34895 
1.235825274865441e-07 1:290.02065 2:334.77044 3:706.56292 4:492.10526 5:-315.95015 6:-190.69897 7:-674.48807 8:-155.375 9:230.71896 10:-61.568441 
-3.333426993423607e-07 1:-1307.2645 2:-79.03468 3:13.735846 4:112.48828 5:62.572714 6:-416.65474 7:125.09951 8:-143.16628 9:313.93039 10:-118.62839 
-1.3826056186190512e-07 1:-1240.8235 2:-84.533264 3:-258.00342 4:506.25638 5:-40.336921 6:-324.3881 7:-258.41518 8:47.613108 9:-439.37261 10:204.68123 
-3.8903641780801858e-07 1:-1338.7018 2:103.74788 3:170.10918 4:-202.51333 5:-26.653776 6:370.23238 7:-22.976493 8:154.62428 9:98.829246 10:59.12843 
