svm_type c_svc
kernel_type linear
nr_class 2
total_sv 8
rho -1.8103169837816937
label 1 0
nr_sv 7 1
SV
6.3464425502823706e-07 1:-42.964309 2:304.26696 3:-237.1583 4:643.08928 5:-150.23908 6:205.87718 7:-846.10504 8:408.13284 9:-505.96962 10:248.99732 
2.1102527673242813e-06 1:636.92648 2:-386.41505 3:346.43095 4:9.5496512 5:-145.67007 6:-208.70011 7:-34.833517 8:-300.47369 9:234.48575 10:35.823409 
7.156159662992709e-07 1:-724.14275 2:-254.65649 3:-301.04438 4:627.16635 5:154.7363 6:-808.18203 7:410.35475 8:161.85192 9:-74.512672 10:25.945205 
4.4092975048110575e-06 1:115.59785 2:425.54249 3:685.57949 4:-88.018819 5:608.35227 6:71.218266 7:307.68542 8:192.13365 9:374.27627 10:-305.13757 
8.1914141030377926e-07 1:-731.93562 2:-947.3199 3:-406.68706 4:418.79193 5:327.50305 6:492.63272 7:323.10949 8:-561.67882 9:-226.43419 10:118.5352 
6.7823415191497518e-07 1:-1101.4167 2:-294.50572 3:-341.3749 4:93.197757 5:-782.32341 6:351.26452 7:291.09215 8:530.43457 9:-0.13554112 10:-222.74309 
1.5991245719179613e-06 1:-1057.5434 2:210.63972 3:-188.58787 4:-604.35437 5:-461.55029 6:121.90911 7:-199.0863 8:-83.613474 9:-391.19841 10:384.23861 
-1.0966310627599558e-05 1:-294.00873 2:-82.749592 3:580.34155 4:87.295832 5:87.361967 6:-0.35404124 7:27.564928 8:51.649773 9:9.6106911 10:-1.2861707 
